Language model created by QuickLM on Tue Nov  3 03:36:40 EST 2015
Copyright (c) 1996-2010 Carnegie Mellon University and Alexander I. Rudnicky

The model is in standard ARPA format, designed by Doug Paul while he was at MITRE.

The code that was used to produce this language model is available in Open Source.
Please visit http://www.speech.cs.cmu.edu/tools/ for more information

The (fixed) discount mass is 0.5. The backoffs are computed using the ratio method.
This model based on a corpus of 45 sentences and 48 words

\data\
ngram 1=48
ngram 2=94
ngram 3=68

\1-grams:
-0.8492 </s> -0.3010
-0.8492 <s> -0.2218
-2.5024 ABOVE -0.2348
-2.5024 ASKINGSPEED -0.2348
-2.5024 BACK -0.2348
-2.5024 BELOW -0.2348
-2.5024 COMMAND -0.2348
-2.5024 CONTINUE -0.2348
-2.5024 DANCE -0.2997
-2.5024 DONE -0.2348
-2.2014 DOWN -0.2348
-2.5024 EIGHT -0.2348
-2.5024 ELEVEN -0.2348
-2.2014 FASTER -0.2348
-2.5024 FINISH -0.2348
-2.5024 FIVE -0.2348
-2.5024 FOUR -0.2348
-1.6573 GO -0.2119
-2.5024 HARDER -0.2348
-2.2014 I -0.2983
-2.5024 IT -0.2348
-2.0253 LEFT -0.2316
-2.5024 LIKE -0.2969
-2.5024 LIST -0.2348
-2.5024 MEAN -0.2997
-2.5024 NINE -0.2348
-2.2014 OF -0.2348
-2.5024 OKAY -0.2348
-2.5024 ONE -0.2348
-2.2014 PRESS -0.2983
-2.5024 QUIT -0.2348
-2.5024 RESET -0.2348
-2.0253 RIGHT -0.2316
-2.5024 ROBOT -0.2348
-2.5024 SEVEN -0.2348
-2.5024 SIX -0.2348
-2.2014 SLOWER -0.2348
-2.5024 SOFTER -0.2348
-1.9004 STAY -0.2900
-2.5024 STOP -0.2348
-2.5024 TEACH -0.2969
-2.5024 TEN -0.2348
-2.5024 THREE -0.2348
-2.5024 TRAIN -0.2969
-2.5024 TWO -0.2348
-2.2014 UP -0.2348
-2.2014 WILL -0.2983
-2.0253 YOU -0.2332

\2-grams:
-1.9542 <s> ASKINGSPEED 0.0000
-1.9542 <s> BACK 0.0000
-1.9542 <s> COMMAND 0.0000
-1.9542 <s> CONTINUE 0.0000
-1.9542 <s> DANCE 0.0000
-1.9542 <s> DONE 0.0000
-1.9542 <s> DOWN 0.0000
-1.9542 <s> EIGHT 0.0000
-1.9542 <s> ELEVEN 0.0000
-1.9542 <s> FASTER 0.0000
-1.9542 <s> FINISH 0.0000
-1.9542 <s> FIVE 0.0000
-1.9542 <s> FOUR 0.0000
-1.1091 <s> GO -0.0000
-1.6532 <s> I 0.0000
-1.9542 <s> LEFT -0.1249
-1.9542 <s> LIST 0.0000
-1.9542 <s> NINE 0.0000
-1.9542 <s> OKAY 0.0000
-1.9542 <s> ONE 0.0000
-1.6532 <s> PRESS 0.0000
-1.9542 <s> QUIT 0.0000
-1.9542 <s> RESET 0.0000
-1.9542 <s> RIGHT -0.1249
-1.9542 <s> ROBOT 0.0000
-1.9542 <s> SEVEN 0.0000
-1.9542 <s> SIX 0.0000
-1.9542 <s> SLOWER 0.0000
-1.3522 <s> STAY 0.0000
-1.9542 <s> STOP 0.0000
-1.9542 <s> TEN 0.0000
-1.9542 <s> THREE 0.0000
-1.9542 <s> TWO 0.0000
-1.9542 <s> UP 0.0000
-0.3010 ABOVE </s> -0.3010
-0.3010 ASKINGSPEED </s> -0.3010
-0.3010 BACK </s> -0.3010
-0.3010 BELOW </s> -0.3010
-0.3010 COMMAND </s> -0.3010
-0.3010 CONTINUE </s> -0.3010
-0.3010 DANCE LIKE 0.0000
-0.3010 DONE </s> -0.3010
-0.3010 DOWN </s> -0.3010
-0.3010 EIGHT </s> -0.3010
-0.3010 ELEVEN </s> -0.3010
-0.3010 FASTER </s> -0.3010
-0.3010 FINISH </s> -0.3010
-0.3010 FIVE </s> -0.3010
-0.3010 FOUR </s> -0.3010
-1.1461 GO </s> -0.3010
-1.1461 GO DOWN 0.0000
-1.1461 GO FASTER 0.0000
-1.1461 GO LEFT -0.1249
-1.1461 GO RIGHT -0.1249
-1.1461 GO SLOWER 0.0000
-1.1461 GO UP 0.0000
-0.3010 HARDER </s> -0.3010
-0.3010 I WILL 0.0000
-0.3010 IT </s> -0.3010
-0.4771 LEFT </s> -0.3010
-0.7782 LEFT OF 0.0000
-0.3010 LIKE YOU -0.2218
-0.3010 LIST </s> -0.3010
-0.3010 MEAN IT 0.0000
-0.3010 NINE </s> -0.3010
-0.3010 OF </s> -0.3010
-0.3010 OKAY </s> -0.3010
-0.3010 ONE </s> -0.3010
-0.6021 PRESS HARDER 0.0000
-0.6021 PRESS SOFTER 0.0000
-0.3010 QUIT </s> -0.3010
-0.3010 RESET </s> -0.3010
-0.4771 RIGHT </s> -0.3010
-0.7782 RIGHT OF 0.0000
-0.3010 ROBOT </s> -0.3010
-0.3010 SEVEN </s> -0.3010
-0.3010 SIX </s> -0.3010
-0.3010 SLOWER </s> -0.3010
-0.3010 SOFTER </s> -0.3010
-0.9031 STAY ABOVE 0.0000
-0.9031 STAY BELOW 0.0000
-0.9031 STAY LEFT -0.2218
-0.9031 STAY RIGHT -0.2218
-0.3010 STOP </s> -0.3010
-0.3010 TEACH YOU -0.1249
-0.3010 TEN </s> -0.3010
-0.3010 THREE </s> -0.3010
-0.3010 TRAIN YOU -0.1249
-0.3010 TWO </s> -0.3010
-0.3010 UP </s> -0.3010
-0.6021 WILL TEACH 0.0000
-0.6021 WILL TRAIN 0.0000
-0.4771 YOU </s> -0.3010
-0.7782 YOU MEAN 0.0000

\3-grams:
-0.3010 <s> ASKINGSPEED </s>
-0.3010 <s> BACK </s>
-0.3010 <s> COMMAND </s>
-0.3010 <s> CONTINUE </s>
-0.3010 <s> DANCE LIKE
-0.3010 <s> DONE </s>
-0.3010 <s> DOWN </s>
-0.3010 <s> EIGHT </s>
-0.3010 <s> ELEVEN </s>
-0.3010 <s> FASTER </s>
-0.3010 <s> FINISH </s>
-0.3010 <s> FIVE </s>
-0.3010 <s> FOUR </s>
-1.1461 <s> GO </s>
-1.1461 <s> GO DOWN
-1.1461 <s> GO FASTER
-1.1461 <s> GO LEFT
-1.1461 <s> GO RIGHT
-1.1461 <s> GO SLOWER
-1.1461 <s> GO UP
-0.3010 <s> I WILL
-0.3010 <s> LEFT </s>
-0.3010 <s> LIST </s>
-0.3010 <s> NINE </s>
-0.3010 <s> OKAY </s>
-0.3010 <s> ONE </s>
-0.6021 <s> PRESS HARDER
-0.6021 <s> PRESS SOFTER
-0.3010 <s> QUIT </s>
-0.3010 <s> RESET </s>
-0.3010 <s> RIGHT </s>
-0.3010 <s> ROBOT </s>
-0.3010 <s> SEVEN </s>
-0.3010 <s> SIX </s>
-0.3010 <s> SLOWER </s>
-0.9031 <s> STAY ABOVE
-0.9031 <s> STAY BELOW
-0.9031 <s> STAY LEFT
-0.9031 <s> STAY RIGHT
-0.3010 <s> STOP </s>
-0.3010 <s> TEN </s>
-0.3010 <s> THREE </s>
-0.3010 <s> TWO </s>
-0.3010 <s> UP </s>
-0.3010 DANCE LIKE YOU
-0.3010 GO DOWN </s>
-0.3010 GO FASTER </s>
-0.3010 GO LEFT </s>
-0.3010 GO RIGHT </s>
-0.3010 GO SLOWER </s>
-0.3010 GO UP </s>
-0.6021 I WILL TEACH
-0.6021 I WILL TRAIN
-0.3010 LEFT OF </s>
-0.3010 LIKE YOU MEAN
-0.3010 MEAN IT </s>
-0.3010 PRESS HARDER </s>
-0.3010 PRESS SOFTER </s>
-0.3010 RIGHT OF </s>
-0.3010 STAY ABOVE </s>
-0.3010 STAY BELOW </s>
-0.3010 STAY LEFT OF
-0.3010 STAY RIGHT OF
-0.3010 TEACH YOU </s>
-0.3010 TRAIN YOU </s>
-0.3010 WILL TEACH YOU
-0.3010 WILL TRAIN YOU
-0.3010 YOU MEAN IT

\end\
