Language model created by QuickLM on Tue Oct 27 08:01:16 EDT 2015
Copyright (c) 1996-2010 Carnegie Mellon University and Alexander I. Rudnicky

The model is in standard ARPA format, designed by Doug Paul while he was at MITRE.

The code that was used to produce this language model is available in Open Source.
Please visit http://www.speech.cs.cmu.edu/tools/ for more information

The (fixed) discount mass is 0.5. The backoffs are computed using the ratio method.
This model based on a corpus of 44 sentences and 47 words

\data\
ngram 1=47
ngram 2=92
ngram 3=67

\1-grams:
-0.8507 </s> -0.3010
-0.8507 <s> -0.2218
-2.4942 ABOVE -0.2350
-2.4942 ASKINGSPEED -0.2350
-2.4942 BACK -0.2350
-2.4942 BELOW -0.2350
-2.4942 COMMAND -0.2350
-2.4942 CONTINUE -0.2350
-2.4942 DANCE -0.2996
-2.4942 DONE -0.2350
-2.1931 DOWN -0.2350
-2.4942 EIGHT -0.2350
-2.4942 ELEVEN -0.2350
-2.1931 FASTER -0.2350
-2.4942 FINISH -0.2350
-2.4942 FIVE -0.2350
-2.4942 FOUR -0.2350
-1.6491 GO -0.2117
-2.4942 HARDER -0.2350
-2.1931 I -0.2982
-2.4942 IT -0.2350
-2.0170 LEFT -0.2318
-2.4942 LIKE -0.2968
-2.4942 MEAN -0.2996
-2.4942 NINE -0.2350
-2.1931 OF -0.2350
-2.4942 OKAY -0.2350
-2.4942 ONE -0.2350
-2.1931 PRESS -0.2982
-2.4942 QUIT -0.2350
-2.4942 RESET -0.2350
-2.0170 RIGHT -0.2318
-2.4942 ROBOT -0.2350
-2.4942 SEVEN -0.2350
-2.4942 SIX -0.2350
-2.1931 SLOWER -0.2350
-2.4942 SOFTER -0.2350
-1.8921 STAY -0.2897
-2.4942 STOP -0.2350
-2.4942 TEACH -0.2968
-2.4942 TEN -0.2350
-2.4942 THREE -0.2350
-2.4942 TRAIN -0.2968
-2.4942 TWO -0.2350
-2.1931 UP -0.2350
-2.1931 WILL -0.2982
-2.0170 YOU -0.2334

\2-grams:
-1.9445 <s> ASKINGSPEED 0.0000
-1.9445 <s> BACK 0.0000
-1.9445 <s> COMMAND 0.0000
-1.9445 <s> CONTINUE 0.0000
-1.9445 <s> DANCE 0.0000
-1.9445 <s> DONE 0.0000
-1.9445 <s> DOWN 0.0000
-1.9445 <s> EIGHT 0.0000
-1.9445 <s> ELEVEN 0.0000
-1.9445 <s> FASTER 0.0000
-1.9445 <s> FINISH 0.0000
-1.9445 <s> FIVE 0.0000
-1.9445 <s> FOUR 0.0000
-1.0994 <s> GO -0.0000
-1.6435 <s> I 0.0000
-1.9445 <s> LEFT -0.1249
-1.9445 <s> NINE 0.0000
-1.9445 <s> OKAY 0.0000
-1.9445 <s> ONE 0.0000
-1.6435 <s> PRESS 0.0000
-1.9445 <s> QUIT 0.0000
-1.9445 <s> RESET 0.0000
-1.9445 <s> RIGHT -0.1249
-1.9445 <s> ROBOT 0.0000
-1.9445 <s> SEVEN 0.0000
-1.9445 <s> SIX 0.0000
-1.9445 <s> SLOWER 0.0000
-1.3424 <s> STAY 0.0000
-1.9445 <s> STOP 0.0000
-1.9445 <s> TEN 0.0000
-1.9445 <s> THREE 0.0000
-1.9445 <s> TWO 0.0000
-1.9445 <s> UP 0.0000
-0.3010 ABOVE </s> -0.3010
-0.3010 ASKINGSPEED </s> -0.3010
-0.3010 BACK </s> -0.3010
-0.3010 BELOW </s> -0.3010
-0.3010 COMMAND </s> -0.3010
-0.3010 CONTINUE </s> -0.3010
-0.3010 DANCE LIKE 0.0000
-0.3010 DONE </s> -0.3010
-0.3010 DOWN </s> -0.3010
-0.3010 EIGHT </s> -0.3010
-0.3010 ELEVEN </s> -0.3010
-0.3010 FASTER </s> -0.3010
-0.3010 FINISH </s> -0.3010
-0.3010 FIVE </s> -0.3010
-0.3010 FOUR </s> -0.3010
-1.1461 GO </s> -0.3010
-1.1461 GO DOWN 0.0000
-1.1461 GO FASTER 0.0000
-1.1461 GO LEFT -0.1249
-1.1461 GO RIGHT -0.1249
-1.1461 GO SLOWER 0.0000
-1.1461 GO UP 0.0000
-0.3010 HARDER </s> -0.3010
-0.3010 I WILL 0.0000
-0.3010 IT </s> -0.3010
-0.4771 LEFT </s> -0.3010
-0.7782 LEFT OF 0.0000
-0.3010 LIKE YOU -0.2218
-0.3010 MEAN IT 0.0000
-0.3010 NINE </s> -0.3010
-0.3010 OF </s> -0.3010
-0.3010 OKAY </s> -0.3010
-0.3010 ONE </s> -0.3010
-0.6021 PRESS HARDER 0.0000
-0.6021 PRESS SOFTER 0.0000
-0.3010 QUIT </s> -0.3010
-0.3010 RESET </s> -0.3010
-0.4771 RIGHT </s> -0.3010
-0.7782 RIGHT OF 0.0000
-0.3010 ROBOT </s> -0.3010
-0.3010 SEVEN </s> -0.3010
-0.3010 SIX </s> -0.3010
-0.3010 SLOWER </s> -0.3010
-0.3010 SOFTER </s> -0.3010
-0.9031 STAY ABOVE 0.0000
-0.9031 STAY BELOW 0.0000
-0.9031 STAY LEFT -0.2218
-0.9031 STAY RIGHT -0.2218
-0.3010 STOP </s> -0.3010
-0.3010 TEACH YOU -0.1249
-0.3010 TEN </s> -0.3010
-0.3010 THREE </s> -0.3010
-0.3010 TRAIN YOU -0.1249
-0.3010 TWO </s> -0.3010
-0.3010 UP </s> -0.3010
-0.6021 WILL TEACH 0.0000
-0.6021 WILL TRAIN 0.0000
-0.4771 YOU </s> -0.3010
-0.7782 YOU MEAN 0.0000

\3-grams:
-0.3010 <s> ASKINGSPEED </s>
-0.3010 <s> BACK </s>
-0.3010 <s> COMMAND </s>
-0.3010 <s> CONTINUE </s>
-0.3010 <s> DANCE LIKE
-0.3010 <s> DONE </s>
-0.3010 <s> DOWN </s>
-0.3010 <s> EIGHT </s>
-0.3010 <s> ELEVEN </s>
-0.3010 <s> FASTER </s>
-0.3010 <s> FINISH </s>
-0.3010 <s> FIVE </s>
-0.3010 <s> FOUR </s>
-1.1461 <s> GO </s>
-1.1461 <s> GO DOWN
-1.1461 <s> GO FASTER
-1.1461 <s> GO LEFT
-1.1461 <s> GO RIGHT
-1.1461 <s> GO SLOWER
-1.1461 <s> GO UP
-0.3010 <s> I WILL
-0.3010 <s> LEFT </s>
-0.3010 <s> NINE </s>
-0.3010 <s> OKAY </s>
-0.3010 <s> ONE </s>
-0.6021 <s> PRESS HARDER
-0.6021 <s> PRESS SOFTER
-0.3010 <s> QUIT </s>
-0.3010 <s> RESET </s>
-0.3010 <s> RIGHT </s>
-0.3010 <s> ROBOT </s>
-0.3010 <s> SEVEN </s>
-0.3010 <s> SIX </s>
-0.3010 <s> SLOWER </s>
-0.9031 <s> STAY ABOVE
-0.9031 <s> STAY BELOW
-0.9031 <s> STAY LEFT
-0.9031 <s> STAY RIGHT
-0.3010 <s> STOP </s>
-0.3010 <s> TEN </s>
-0.3010 <s> THREE </s>
-0.3010 <s> TWO </s>
-0.3010 <s> UP </s>
-0.3010 DANCE LIKE YOU
-0.3010 GO DOWN </s>
-0.3010 GO FASTER </s>
-0.3010 GO LEFT </s>
-0.3010 GO RIGHT </s>
-0.3010 GO SLOWER </s>
-0.3010 GO UP </s>
-0.6021 I WILL TEACH
-0.6021 I WILL TRAIN
-0.3010 LEFT OF </s>
-0.3010 LIKE YOU MEAN
-0.3010 MEAN IT </s>
-0.3010 PRESS HARDER </s>
-0.3010 PRESS SOFTER </s>
-0.3010 RIGHT OF </s>
-0.3010 STAY ABOVE </s>
-0.3010 STAY BELOW </s>
-0.3010 STAY LEFT OF
-0.3010 STAY RIGHT OF
-0.3010 TEACH YOU </s>
-0.3010 TRAIN YOU </s>
-0.3010 WILL TEACH YOU
-0.3010 WILL TRAIN YOU
-0.3010 YOU MEAN IT

\end\
