Language model created by QuickLM on Mon Nov 30 10:30:01 EST 2015
Copyright (c) 1996-2010 Carnegie Mellon University and Alexander I. Rudnicky

The model is in standard ARPA format, designed by Doug Paul while he was at MITRE.

The code that was used to produce this language model is available in Open Source.
Please visit http://www.speech.cs.cmu.edu/tools/ for more information

The (fixed) discount mass is 0.5. The backoffs are computed using the ratio method.
This model based on a corpus of 66 sentences and 64 words

\data\
ngram 1=64
ngram 2=128
ngram 3=85

\1-grams:
-0.8278 </s> -0.3010
-0.8278 <s> -0.2207
-2.6474 ABOVE -0.2311
-2.6474 ASKINGSPEED -0.2311
-2.3464 BACK -0.2311
-2.6474 BEGIN -0.2311
-2.6474 BELOW -0.2311
-2.6474 COMMAND -0.2311
-2.6474 CONTINUE -0.2311
-2.6474 DANCE -0.3001
-2.6474 DO -0.2311
-2.6474 DONE -0.2311
-2.3464 DOWN -0.2311
-2.6474 EIGHT -0.2311
-2.6474 ELEVEN -0.2311
-2.6474 END -0.2311
-2.6474 FALSE -0.2311
-2.3464 FASTER -0.2311
-2.6474 FINISH -0.2311
-2.6474 FINISHED -0.2311
-2.6474 FIVE -0.2311
-2.6474 FOUR -0.2311
-2.6474 FRONT -0.2311
-1.8023 GO -0.2136
-2.6474 HARDER -0.2311
-2.3464 I -0.2991
-2.6474 IT -0.2311
-2.6474 LEARN -0.2311
-2.1703 LEFT -0.2288
-2.6474 LIKE -0.2981
-2.6474 LIST -0.2311
-2.6474 MAKE -0.2311
-2.6474 MEAN -0.3001
-2.6474 NEW -0.2311
-2.6474 NINE -0.2311
-2.6474 NO -0.2311
-2.3464 OF -0.2311
-2.6474 OKAY -0.2311
-2.6474 ONE -0.2311
-2.3464 PRESS -0.2991
-2.6474 QUIT -0.2311
-2.3464 RESET -0.2311
-2.6474 RESTART -0.2311
-2.0453 RIGHT -0.2288
-2.6474 ROBOT -0.2311
-2.6474 SEVEN -0.2311
-2.6474 SIX -0.2311
-2.3464 SLOWER -0.2311
-2.6474 SOFTER -0.2311
-2.6474 START -0.2311
-2.0453 STAY -0.2921
-2.3464 STOP -0.2311
-2.3464 TEACH -0.2277
-2.6474 TEN -0.2311
-2.6474 THREE -0.2311
-2.6474 TRAIN -0.2981
-2.6474 TRUE -0.2311
-2.6474 TWO -0.2311
-2.3464 UP -0.2311
-2.6474 VELOCITY -0.2311
-2.3464 WILL -0.2981
-2.6474 WRONG -0.2311
-2.6474 YES -0.2311
-2.1703 YOU -0.2300

\2-grams:
-2.1206 <s> ASKINGSPEED 0.0000
-1.8195 <s> BACK 0.0000
-2.1206 <s> BEGIN 0.0000
-2.1206 <s> COMMAND 0.0000
-2.1206 <s> CONTINUE 0.0000
-2.1206 <s> DANCE 0.0000
-2.1206 <s> DO 0.0000
-2.1206 <s> DONE 0.0000
-2.1206 <s> DOWN 0.0000
-2.1206 <s> EIGHT 0.0000
-2.1206 <s> ELEVEN 0.0000
-2.1206 <s> END 0.0000
-2.1206 <s> FALSE 0.0000
-2.1206 <s> FASTER 0.0000
-2.1206 <s> FINISH 0.0000
-2.1206 <s> FINISHED 0.0000
-2.1206 <s> FIVE 0.0000
-2.1206 <s> FOUR 0.0000
-2.1206 <s> FRONT 0.0000
-1.2755 <s> GO -0.0000
-1.8195 <s> I 0.0000
-2.1206 <s> LEARN 0.0000
-2.1206 <s> LEFT -0.1249
-2.1206 <s> LIST 0.0000
-2.1206 <s> MAKE 0.0000
-2.1206 <s> NEW 0.0000
-2.1206 <s> NINE 0.0000
-2.1206 <s> NO 0.0000
-2.1206 <s> OKAY 0.0000
-2.1206 <s> ONE 0.0000
-1.8195 <s> PRESS 0.0000
-2.1206 <s> QUIT 0.0000
-1.8195 <s> RESET 0.0000
-2.1206 <s> RESTART 0.0000
-1.8195 <s> RIGHT -0.0969
-2.1206 <s> ROBOT 0.0000
-2.1206 <s> SEVEN 0.0000
-2.1206 <s> SIX 0.0000
-2.1206 <s> SLOWER 0.0000
-2.1206 <s> START 0.0000
-1.5185 <s> STAY 0.0000
-1.8195 <s> STOP 0.0000
-2.1206 <s> TEACH -0.1761
-2.1206 <s> TEN 0.0000
-2.1206 <s> THREE 0.0000
-2.1206 <s> TRUE 0.0000
-2.1206 <s> TWO 0.0000
-2.1206 <s> UP 0.0000
-2.1206 <s> VELOCITY 0.0000
-2.1206 <s> WRONG 0.0000
-2.1206 <s> YES 0.0000
-0.3010 ABOVE </s> -0.3010
-0.3010 ASKINGSPEED </s> -0.3010
-0.3010 BACK </s> -0.3010
-0.3010 BEGIN </s> -0.3010
-0.3010 BELOW </s> -0.3010
-0.3010 COMMAND </s> -0.3010
-0.3010 CONTINUE </s> -0.3010
-0.3010 DANCE LIKE 0.0000
-0.3010 DO </s> -0.3010
-0.3010 DONE </s> -0.3010
-0.3010 DOWN </s> -0.3010
-0.3010 EIGHT </s> -0.3010
-0.3010 ELEVEN </s> -0.3010
-0.3010 END </s> -0.3010
-0.3010 FALSE </s> -0.3010
-0.3010 FASTER </s> -0.3010
-0.3010 FINISH </s> -0.3010
-0.3010 FINISHED </s> -0.3010
-0.3010 FIVE </s> -0.3010
-0.3010 FOUR </s> -0.3010
-0.3010 FRONT </s> -0.3010
-1.1461 GO </s> -0.3010
-1.1461 GO DOWN 0.0000
-1.1461 GO FASTER 0.0000
-1.1461 GO LEFT -0.1249
-1.1461 GO RIGHT -0.0969
-1.1461 GO SLOWER 0.0000
-1.1461 GO UP 0.0000
-0.3010 HARDER </s> -0.3010
-0.3010 I WILL 0.0000
-0.3010 IT </s> -0.3010
-0.3010 LEARN </s> -0.3010
-0.4771 LEFT </s> -0.3010
-0.7782 LEFT OF 0.0000
-0.3010 LIKE YOU -0.2218
-0.3010 LIST </s> -0.3010
-0.3010 MAKE </s> -0.3010
-0.3010 MEAN IT 0.0000
-0.3010 NEW </s> -0.3010
-0.3010 NINE </s> -0.3010
-0.3010 NO </s> -0.3010
-0.3010 OF </s> -0.3010
-0.3010 OKAY </s> -0.3010
-0.3010 ONE </s> -0.3010
-0.6021 PRESS HARDER 0.0000
-0.6021 PRESS SOFTER 0.0000
-0.3010 QUIT </s> -0.3010
-0.3010 RESET </s> -0.3010
-0.3010 RESTART </s> -0.3010
-0.4260 RIGHT </s> -0.3010
-0.9031 RIGHT OF 0.0000
-0.3010 ROBOT </s> -0.3010
-0.3010 SEVEN </s> -0.3010
-0.3010 SIX </s> -0.3010
-0.3010 SLOWER </s> -0.3010
-0.3010 SOFTER </s> -0.3010
-0.3010 START </s> -0.3010
-0.9031 STAY ABOVE 0.0000
-0.9031 STAY BELOW 0.0000
-0.9031 STAY LEFT -0.2218
-0.9031 STAY RIGHT -0.2430
-0.3010 STOP </s> -0.3010
-0.6021 TEACH </s> -0.3010
-0.6021 TEACH YOU -0.1249
-0.3010 TEN </s> -0.3010
-0.3010 THREE </s> -0.3010
-0.3010 TRAIN YOU -0.1249
-0.3010 TRUE </s> -0.3010
-0.3010 TWO </s> -0.3010
-0.3010 UP </s> -0.3010
-0.3010 VELOCITY </s> -0.3010
-0.6021 WILL TEACH -0.1761
-0.6021 WILL TRAIN 0.0000
-0.3010 WRONG </s> -0.3010
-0.3010 YES </s> -0.3010
-0.4771 YOU </s> -0.3010
-0.7782 YOU MEAN 0.0000

\3-grams:
-0.3010 <s> ASKINGSPEED </s>
-0.3010 <s> BACK </s>
-0.3010 <s> BEGIN </s>
-0.3010 <s> COMMAND </s>
-0.3010 <s> CONTINUE </s>
-0.3010 <s> DANCE LIKE
-0.3010 <s> DO </s>
-0.3010 <s> DONE </s>
-0.3010 <s> DOWN </s>
-0.3010 <s> EIGHT </s>
-0.3010 <s> ELEVEN </s>
-0.3010 <s> END </s>
-0.3010 <s> FALSE </s>
-0.3010 <s> FASTER </s>
-0.3010 <s> FINISH </s>
-0.3010 <s> FINISHED </s>
-0.3010 <s> FIVE </s>
-0.3010 <s> FOUR </s>
-0.3010 <s> FRONT </s>
-1.1461 <s> GO </s>
-1.1461 <s> GO DOWN
-1.1461 <s> GO FASTER
-1.1461 <s> GO LEFT
-1.1461 <s> GO RIGHT
-1.1461 <s> GO SLOWER
-1.1461 <s> GO UP
-0.3010 <s> I WILL
-0.3010 <s> LEARN </s>
-0.3010 <s> LEFT </s>
-0.3010 <s> LIST </s>
-0.3010 <s> MAKE </s>
-0.3010 <s> NEW </s>
-0.3010 <s> NINE </s>
-0.3010 <s> NO </s>
-0.3010 <s> OKAY </s>
-0.3010 <s> ONE </s>
-0.6021 <s> PRESS HARDER
-0.6021 <s> PRESS SOFTER
-0.3010 <s> QUIT </s>
-0.3010 <s> RESET </s>
-0.3010 <s> RESTART </s>
-0.3010 <s> RIGHT </s>
-0.3010 <s> ROBOT </s>
-0.3010 <s> SEVEN </s>
-0.3010 <s> SIX </s>
-0.3010 <s> SLOWER </s>
-0.3010 <s> START </s>
-0.9031 <s> STAY ABOVE
-0.9031 <s> STAY BELOW
-0.9031 <s> STAY LEFT
-0.9031 <s> STAY RIGHT
-0.3010 <s> STOP </s>
-0.3010 <s> TEACH </s>
-0.3010 <s> TEN </s>
-0.3010 <s> THREE </s>
-0.3010 <s> TRUE </s>
-0.3010 <s> TWO </s>
-0.3010 <s> UP </s>
-0.3010 <s> VELOCITY </s>
-0.3010 <s> WRONG </s>
-0.3010 <s> YES </s>
-0.3010 DANCE LIKE YOU
-0.3010 GO DOWN </s>
-0.3010 GO FASTER </s>
-0.3010 GO LEFT </s>
-0.3010 GO RIGHT </s>
-0.3010 GO SLOWER </s>
-0.3010 GO UP </s>
-0.6021 I WILL TEACH
-0.6021 I WILL TRAIN
-0.3010 LEFT OF </s>
-0.3010 LIKE YOU MEAN
-0.3010 MEAN IT </s>
-0.3010 PRESS HARDER </s>
-0.3010 PRESS SOFTER </s>
-0.3010 RIGHT OF </s>
-0.3010 STAY ABOVE </s>
-0.3010 STAY BELOW </s>
-0.3010 STAY LEFT OF
-0.3010 STAY RIGHT OF
-0.3010 TEACH YOU </s>
-0.3010 TRAIN YOU </s>
-0.3010 WILL TEACH YOU
-0.3010 WILL TRAIN YOU
-0.3010 YOU MEAN IT

\end\

